tree
version=v2
num_class=1
num_tree_per_iteration=1
label_index=0
max_feature_idx=7
objective=binary sigmoid:1
feature_names=Column_0 Column_1 Column_2 Column_3 Column_4 Column_5 Column_6 Column_7
feature_infos=[0:17] [0:198] [0:122] [0:99] [0:846] [0:67.099999999999994] [0.078:2.4199999999999999] [21:81]
tree_sizes=1374 1459 1456 1460 1539 1458 1541 1535 1540 1468 1698 1609 1534 1537 1535

Tree=0
num_leaves=17
num_cat=0
split_feature=5 7 6 7 5 7 6 5 5 2 5 3 5 4 7 6
split_gain=51.4655 17.1309 15.582 10.2472 6.29208 7.81358 8.61723 6.6188 6.1686 4.98804 3.86596 3.33231 2.85168 1.28444 1.21212 0.48
threshold=29.550000000000004 24.500000000000004 0.74150000000000016 27.500000000000004 42.250000000000007 34.500000000000007 0.39450000000000007 31.750000000000004 32.850000000000001 77.000000000000014 26.350000000000005 29.500000000000004 35.95000000000001 64.500000000000014 47.500000000000007 0.53650000000000009
decision_type=2 2 2 2 2 2 2 2 2 2 2 2 2 2 2 2
left_child=3 8 4 15 5 7 9 -3 -2 -7 14 -9 -4 -10 -5 -1
right_child=1 2 12 10 -6 6 -8 11 13 -11 -12 -13 -14 -15 -16 -17
leaf_value=-0.099999999999999978 -0.091666666666666619 0.0099999999999999933 0.082608695652173936 -0.083333333333333301 0.038461538461538464 0.013333333333333329 0.053846153846153849 -0.084000000000000019 -0.010000000000000002 -0.044827586206896551 -0.024324324324324326 -0.033333333333333333 0.033333333333333326 -0.043999999999999997 -0.049999999999999989 -0.084000000000000005
leaf_count=75 24 20 23 24 26 30 26 25 20 29 37 27 24 25 20 25
internal_value=0 -0.140468 0.121739 -1.49171 -0.142077 -0.292994 0.117647 -0.777778 -1.01449 -0.305085 -0.962963 -1.15385 1.14894 -0.577778 -1.36364 -1.92
internal_count=480 299 230 181 183 157 85 72 69 59 81 52 47 45 44 100
shrinkage=0.05


Tree=1
num_leaves=18
num_cat=0
split_feature=1 1 5 0 6 4 7 0 2 5 4 4 1 5 5 5 5
split_gain=71.2761 28.9251 25.937 9.36685 6.73648 6.16519 6.01118 10.3834 4.09433 3.3916 1.68765 0.836573 0.751891 1.53381 0.583911 0.11876 0.00104584
threshold=155.50000000000003 99.500000000000014 26.350000000000005 7.5000000000000009 0.20450000000000002 42.500000000000007 23.500000000000004 2.5000000000000004 74.500000000000014 31.050000000000004 85.500000000000014 206.00000000000003 89.500000000000014 28.050000000000004 23.850000000000005 29.950000000000003 33.400000000000006
decision_type=2 2 2 2 2 2 2 2 2 2 2 2 2 2 2 2 2
left_child=1 10 14 4 -4 8 -7 -8 -6 -2 12 -11 15 -14 -3 -1 -17
right_child=9 2 3 -5 5 6 7 -9 -10 11 -12 -13 13 -15 -16 16 -18
leaf_value=-0.090397325058749034 0.028113943781211105 -0.076103472632753341 -0.071550513047120998 0.034328455735480927 0.035917124510440317 -0.077793143806577189 0.020101083267976466 -0.062462558001276917 -0.014003738636770716 0.085810129442517133 -0.057284170818439839 0.059400453708215895 -0.095755680082519667 -0.057860440013222825 -0.095851673382439107 -0.097840434612204374 -0.098851248373865205
leaf_count=35 22 30 23 37 31 21 35 27 35 30 20 20 23 20 30 21 20
internal_value=0 -0.942175 -0.559245 -0.22652 -0.422996 -0.267458 -0.630403 -0.317123 0.188886 1.21689 -1.68355 1.50489 -1.77397 -1.56243 -1.71953 -1.89362 -1.96667
internal_count=480 408 269 209 172 149 83 62 66 72 139 50 119 43 60 76 41
shrinkage=0.05


Tree=2
num_leaves=18
num_cat=0
split_feature=1 1 5 7 1 6 2 3 5 6 3 3 4 3 1 5 5
split_gain=64.4935 26.3063 23.5974 8.15251 7.84203 6.38729 4.37877 4.2173 3.0799 2.87199 2.78814 2.71192 1.54684 0.793796 0.566797 0.539173 0.00663672
threshold=155.50000000000003 99.500000000000014 26.350000000000005 27.500000000000004 130.50000000000003 0.51500000000000012 71.000000000000014 27.500000000000004 31.050000000000004 0.50950000000000017 11.500000000000002 30.500000000000004 85.500000000000014 30.500000000000004 94.500000000000014 23.850000000000005 29.100000000000005
decision_type=2 2 2 2 2 2 2 2 2 2 2 2 2 2 2 2 2
left_child=1 12 15 4 9 6 -5 -7 -2 -4 -8 -10 13 14 16 -3 -1
right_child=8 2 3 5 -6 7 10 -9 11 -11 -12 -13 -14 -15 -16 -17 -18
leaf_value=-0.091823701871224628 0.026707261954972555 -0.072632676805531274 -0.08128090064606372 0.013507043662887731 0.011744307422512241 -0.0014425080952016305 -0.0079960876967914724 0.050996414429446552 0.094972103607312952 -0.03292578249150143 -0.058122491076328366 0.048333297093032336 -0.054554476426967383 -0.067494494327490093 -0.074414969627856736 -0.091661310547815081 -0.09371271849385425
leaf_count=39 22 30 28 30 22 28 20 34 25 22 25 25 20 22 22 30 36
internal_value=0 -0.897714 -0.532438 -0.215449 -0.761277 0.07092 -0.321944 0.546184 1.15774 -1.1999 -0.716836 1.43267 -1.60657 -1.69342 -1.77157 -1.64274 -1.85464
internal_count=480 408 269 209 72 137 75 62 72 50 45 50 139 119 97 60 75
shrinkage=0.05


Tree=3
num_leaves=18
num_cat=0
split_feature=1 1 5 0 6 3 7 0 5 3 2 7 5 1 5 6 5
split_gain=58.4705 24.075 21.5749 8.10905 5.82359 4.94355 5.43842 6.17673 2.81811 2.49822 2.32877 1.52969 1.70163 1.18275 0.506095 0.136589 0.00380956
threshold=155.50000000000003 99.500000000000014 26.350000000000005 7.5000000000000009 0.20450000000000002 9.0000000000000018 23.500000000000004 2.5000000000000004 31.050000000000004 30.500000000000004 77.000000000000014 25.500000000000004 27.550000000000004 87.500000000000014 23.850000000000005 0.25650000000000006 30.050000000000004
decision_type=2 2 2 2 2 2 2 2 2 2 2 2 2 2 2 2 2
left_child=1 11 14 4 -4 10 -7 -8 -2 -10 -6 15 -13 -14 -3 -1 -17
right_child=8 2 3 -5 5 6 7 -9 9 -11 -12 12 13 -15 -16 16 -18
leaf_value=-0.079628229338702949 0.025380531119649503 -0.06949671615912742 -0.066432249850714373 0.032257413672092831 0.037773483326006024 -0.062977685888411919 0.017311854659796976 -0.039401087462856872 0.090901879940216798 0.046029374899426385 -0.0077597557977368004 -0.088794523460932293 -0.071380366945974161 -0.037640609508527455 -0.088012828311741675 -0.088520280029603937 -0.090245623500520858
leaf_count=21 22 30 23 37 23 27 39 38 25 25 22 21 20 22 30 34 21
internal_value=0 -0.856876 -0.507434 -0.204988 -0.388123 -0.243633 -0.483892 -0.213276 1.1038 1.36784 0.310278 -1.53809 -1.30662 -1.07387 -1.57458 -1.73082 -1.78362
internal_count=480 408 269 209 172 149 104 77 72 50 45 139 63 42 60 76 55
shrinkage=0.05


Tree=4
num_leaves=19
num_cat=0
split_feature=1 1 5 7 1 6 2 3 5 6 3 3 4 3 1 5 7 5
split_gain=53.1096 22.1479 19.8047 6.84797 6.99423 5.60078 3.80027 3.78795 2.5953 2.57285 2.54251 2.32777 1.45853 0.728784 0.523554 0.481698 0.00723066 0.00125188
threshold=155.50000000000003 99.500000000000014 26.350000000000005 27.500000000000004 130.50000000000003 0.51500000000000012 71.000000000000014 27.500000000000004 31.050000000000004 0.50950000000000017 11.500000000000002 30.500000000000004 85.500000000000014 30.500000000000004 94.500000000000014 23.850000000000005 26.500000000000004 28.650000000000002
decision_type=2 2 2 2 2 2 2 2 2 2 2 2 2 2 2 2 2 2
left_child=1 12 15 4 9 6 -5 -7 -2 -4 -8 -10 13 14 16 -3 17 -1
right_child=8 2 3 5 -6 7 10 -9 11 -11 -12 -13 -14 -15 -16 -17 -18 -19
leaf_value=-0.084644498936402399 0.024127468393457356 -0.066642032372954088 -0.075993167905679018 0.012529222869429271 0.012182296205613405 -0.001615319181958547 -0.0068862649102379922 0.048123713822213469 0.087351558080555364 -0.030062538747819747 -0.054818673494890537 0.043878793015142331 -0.048679379964748332 -0.061565356576559871 -0.068177575777683477 -0.084810620805379461 -0.087195573447422847 -0.085705140741273653
leaf_count=24 22 30 28 30 22 28 20 34 25 22 25 25 20 22 22 30 29 22
internal_value=0 -0.819373 -0.484203 -0.19519 -0.697329 0.0671913 -0.301144 0.512606 1.05429 -1.11402 -0.669762 1.30918 -1.47685 -1.56225 -1.63815 -1.51359 -1.71894 -1.70306
internal_count=480 408 269 209 72 137 75 62 72 50 45 50 139 119 97 60 75 46
shrinkage=0.05


Tree=5
num_leaves=18
num_cat=0
split_feature=1 5 0 1 7 2 0 3 7 1 7 1 5 4 5 5 4
split_gain=57.1463 16.6647 10.3061 6.57825 4.7906 4.1822 4.15098 4.06989 3.36724 1.77137 1.14717 1.08066 0.895478 1.15906 0.107277 0.0187999 0.00133228
threshold=123.50000000000001 29.950000000000003 6.5000000000000009 155.50000000000003 42.500000000000007 73.000000000000014 2.5000000000000004 40.500000000000007 30.500000000000004 103.50000000000001 41.500000000000007 180.50000000000003 30.850000000000005 36.500000000000007 23.050000000000004 28.050000000000004 48.500000000000007
decision_type=2 2 2 2 2 2 2 2 2 2 2 2 2 2 2 2 2
left_child=2 6 7 4 5 -3 -2 8 12 -10 -4 -5 14 -14 -1 16 -16
right_child=1 3 10 11 -6 -7 -8 -9 9 -11 -12 -13 13 -15 15 -17 -18
leaf_value=-0.076738739145744347 -0.06329743549370602 0.027739537731902741 0.0061348359718361341 0.049875732844877702 0.058835432797262423 -0.023137800487124403 -0.0077234588892308165 -0.02342130161558259 -0.064638418178551899 -0.028063469077469989 -0.026799335539774163 0.078889377052528881 -0.049112936590499555 -0.077429821504988672 -0.082071564382567436 -0.086307259113648782 -0.083185203244655517
leaf_count=34 24 33 22 38 20 32 32 23 27 27 21 20 25 36 23 21 22
internal_value=0 0.307741 -1.10651 0.671491 0.317867 0.053863 -0.625947 -1.27256 -1.36009 -0.924543 -0.199161 1.19831 -1.50836 -1.31615 -1.62811 -1.67607 -1.65236
internal_count=480 199 281 143 85 65 56 238 215 54 43 58 161 61 100 66 45
shrinkage=0.05


Tree=6
num_leaves=19
num_cat=0
split_feature=7 4 5 5 4 6 2 5 4 2 4 5 2 6 7 6 3 7
split_gain=25.9879 14.097 9.37356 7.59869 7.3228 5.57027 6.63804 4.12096 3.57129 3.16376 3.09723 1.85276 1.68366 1.19277 0.936282 0.721505 1.36472 0.00118834
threshold=27.500000000000004 141.00000000000003 41.400000000000006 27.450000000000003 39.000000000000007 0.72350000000000014 74.500000000000014 29.950000000000003 128.50000000000003 75.500000000000014 36.500000000000007 37.250000000000007 67.000000000000014 0.34050000000000008 34.500000000000007 0.39850000000000008 17.500000000000004 23.500000000000004
decision_type=2 2 2 2 2 2 2 2 2 2 2 2 2 2 2 2 2 2
left_child=2 3 7 13 5 6 12 15 10 -3 -9 -8 -5 -2 -6 17 -17 -1
right_child=1 9 -4 4 14 -7 11 8 -10 -11 -12 -13 -14 -15 -16 16 -18 -19
leaf_value=-0.08023327360357671 -0.037021109531706002 0.018199153997592935 0.0076060099267601022 0.046973122736785874 -0.057248791397512981 0.055686494508955235 -0.045400288779324345 -0.028780862138814697 -0.0057504579957730392 0.063621552404833123 -0.074304567814647504 -0.0058415712828352832 0.007420304399220496 -0.068308242264456337 -0.026777098792274742 -0.04523003246001206 -0.081386159877190528 -0.081184706306816928
leaf_count=38 28 37 24 20 21 20 28 27 20 27 36 21 24 23 20 22 22 22
internal_value=0 -0.0803094 -1.03278 -0.338943 -0.117439 0.146964 -0.0598988 -1.18906 -0.854176 0.745669 -1.09369 -0.569486 0.507853 -1.02158 -0.847382 -1.46421 -1.26491 -1.61167
internal_count=480 269 211 205 154 113 93 187 83 64 63 49 44 51 41 104 44 60
shrinkage=0.05


Tree=7
num_leaves=19
num_cat=0
split_feature=1 1 0 6 6 6 3 6 7 7 2 1 1 6 6 6 7 1
split_gain=50.2002 13.6527 8.99697 6.25448 4.29648 3.98817 3.64362 3.56759 2.87806 2.68777 2.61455 1.61525 1.30127 0.715066 0.632501 1.31084 0.150946 0.0469953
threshold=123.50000000000001 154.50000000000003 6.5000000000000009 0.31450000000000006 0.26250000000000007 0.24200000000000002 40.500000000000007 0.31000000000000005 30.500000000000004 24.500000000000004 77.000000000000014 103.50000000000001 141.50000000000003 0.6755000000000001 0.25000000000000006 0.19500000000000003 22.500000000000004 99.500000000000014
decision_type=2 2 2 2 2 2 2 2 2 2 2 2 2 2 2 2 2 2
left_child=2 3 6 5 -4 -2 8 -3 13 -5 -9 -10 -11 14 15 -1 -16 -18
right_child=1 7 4 9 -6 -7 -8 10 11 12 -12 -13 -14 -15 16 -17 17 -19
leaf_value=-0.079664670314675737 -0.0084280884403013651 0.0154925651599244 -0.043461598377888648 -0.01730236100578034 0.020553092917981491 -0.064347080265928711 -0.021473881943470184 0.082746002009161546 -0.061382975735670177 0.040993368684455272 0.03629950073892934 -0.026276481654242158 0.0087750790271835365 -0.05270154288710921 -0.07351654670773046 -0.046795664247434726 -0.079476345157384415 -0.085656996189003465
leaf_count=28 32 22 20 20 23 22 23 31 27 28 21 27 23 20 36 24 30 23
internal_value=0 0.300147 -1.03363 -0.105107 -0.185132 -0.624843 -1.19169 0.991839 -1.27622 0.286727 1.28256 -0.872439 0.529302 -1.41623 -1.46846 -1.28755 -1.57429 -1.64395
internal_count=480 199 281 125 43 54 238 74 215 71 52 54 51 161 141 52 89 53
shrinkage=0.05


Tree=8
num_leaves=19
num_cat=0
split_feature=1 5 0 6 6 1 2 0 3 6 1 6 5 6 6 0 5 1
split_gain=45.9204 13.667 8.36837 7.72021 3.88841 3.7641 4.30945 3.53888 3.42611 3.07855 2.10243 1.66804 1.22806 1.18268 1.35024 0.567877 0.067882 0.00170541
threshold=123.50000000000001 29.950000000000003 6.5000000000000009 0.31000000000000005 0.26250000000000007 174.00000000000003 73.000000000000014 2.5000000000000004 40.500000000000007 0.24200000000000002 111.50000000000001 0.6755000000000001 38.550000000000004 0.25950000000000006 0.22200000000000003 2.5000000000000004 29.650000000000002 95.500000000000014
decision_type=2 2 2 2 2 2 2 2 2 2 2 2 2 2 2 2 2 2
left_child=2 7 8 9 -4 6 -5 -2 10 -3 11 13 -8 14 -1 -12 17 -15
right_child=1 3 4 5 -6 -7 12 -9 -10 -11 15 -13 -14 16 -16 -17 -18 -19
leaf_value=-0.072725048756038607 -0.058355922451358115 0.019575486644292678 -0.041439022108446445 0.065135633140334104 0.019499081251735374 0.082833725454931562 0.032748359454367472 -0.0065937232367623529 -0.020444064798885848 -0.032205927755942089 -0.053598519880337606 -0.045206236068188826 -0.0022203853842299305 -0.075918476648475813 -0.03883437035155924 -0.029797221108508923 -0.082243978818551583 -0.077144679754227147
leaf_count=32 24 28 20 30 23 24 20 32 23 20 20 31 21 31 21 22 37 21
internal_value=0 0.28639 -0.993966 0.617147 -0.176083 0.952865 0.721714 -0.565507 -1.14828 -0.0410381 -1.23135 -1.33386 0.295847 -1.43066 -1.18528 -0.822322 -1.57794 -1.52835
internal_count=480 199 281 143 43 95 71 56 238 48 215 173 41 142 53 42 89 52
shrinkage=0.05


Tree=9
num_leaves=18
num_cat=0
split_feature=7 4 5 5 4 2 6 5 2 4 4 6 0 6 3 6 4
split_gain=21.0712 11.4863 7.94554 6.53458 6.3889 4.77807 4.50841 3.45367 2.91512 2.24912 1.99145 1.16716 0.97169 2.41622 0.96875 0.931716 0.0195044
threshold=27.500000000000004 141.00000000000003 30.450000000000003 27.450000000000003 39.000000000000007 74.500000000000014 0.44500000000000006 41.400000000000006 75.500000000000014 121.00000000000001 36.500000000000007 0.34050000000000008 1.5000000000000002 0.39850000000000008 30.500000000000004 0.27050000000000007 78.500000000000014
decision_type=2 2 2 2 2 2 2 2 2 2 2 2 2 2 2 2 2
left_child=2 3 12 11 5 15 -7 9 -3 10 -4 -2 16 -14 -6 -5 -1
right_child=1 8 7 4 14 6 -8 -9 -10 -11 -12 -13 13 -15 -16 -17 -18
leaf_value=-0.074457888382411158 -0.032961184757440309 0.016023437982975355 -0.026718208647593208 0.014399648443484112 -0.02365814687166987 -0.032087080378637799 0.024319548020388517 0.0074284447260548813 0.059950697664779964 -0.0088444404578592577 -0.066168916031001002 -0.064309913365817192 -0.075309010802985299 -0.029643196654191951 -0.054872328745789949 0.042201214489879499 -0.078519399411352275
leaf_count=38 28 37 25 21 21 39 23 24 27 21 30 23 31 22 20 30 20
internal_value=0 -0.0623889 -0.932319 -0.297501 -0.0920843 0.155605 -0.221413 -0.520005 0.688445 -0.736669 -0.959801 -0.939494 -1.32826 -1.1218 -0.779201 0.614902 -1.51783
internal_count=480 269 211 205 154 113 62 100 64 76 55 51 111 53 41 51 58
shrinkage=0.05


Tree=10
num_leaves=21
num_cat=0
split_feature=1 5 1 6 5 5 5 5 1 4 6 6 3 4 1 1 1 6 1 0
split_gain=46.5209 14.4171 12.043 4.44159 2.70046 4.36632 3.95929 2.52534 2.49967 2.08382 1.97405 1.58691 1.47252 0.769649 0.73773 0.61294 0.338286 0.117376 0.0108352 0.000556421
threshold=154.50000000000003 29.850000000000005 100.50000000000001 0.74150000000000016 41.400000000000006 34.650000000000013 33.400000000000006 26.350000000000005 126.50000000000001 82.500000000000014 0.34250000000000008 0.30450000000000005 31.500000000000004 184.50000000000003 85.500000000000014 104.50000000000001 124.50000000000001 0.62950000000000006 102.50000000000001 1.5000000000000002
decision_type=2 2 2 2 2 2 2 2 2 2 2 2 2 2 2 2 2 2 2 2
left_child=1 7 12 4 5 6 11 16 -7 15 -2 -4 14 -12 -3 -9 17 18 19 -1
right_child=10 2 3 -5 -6 8 -8 9 -10 -11 13 -13 -14 -15 -16 -17 -18 -19 -20 -21
leaf_value=-0.072630789260138676 0.030014536057982356 -0.078091764174914619 0.00075934865998049004 0.033798350312483509 0.022857497121516777 -0.063894984697100518 0.034379611675649728 -0.066298074460093143 -0.016785037223504468 -0.015427692946760814 0.07642688916276745 -0.038069798282080035 -0.035078522276152491 0.050121872216357083 -0.051293231130897544 -0.043862491471415549 -0.056920827231745463 -0.064801452978455826 -0.075926910638266676 -0.073424546390473105
leaf_count=20 24 25 22 27 20 24 22 26 22 20 29 21 26 20 20 27 21 20 23 21
internal_value=0 -0.705919 -0.374348 -0.0696468 -0.223366 -0.346879 -0.00959968 -1.16118 -0.822949 -0.868368 1.07384 -0.366393 -1.08957 1.31403 -1.31945 -1.08723 -1.37546 -1.43687 -1.48202 -1.46079
internal_count=480 407 229 158 131 111 65 178 46 73 73 43 71 49 45 53 105 84 64 41
shrinkage=0.05


Tree=11
num_leaves=20
num_cat=0
split_feature=1 5 1 7 3 2 4 2 7 2 7 1 3 2 0 1 0 3 5
split_gain=42.4865 13.6089 11.8482 6.89922 3.65672 8.91177 3.20833 2.39215 1.66219 1.47184 1.46611 1.42396 1.36014 1.00102 2.26514 0.421558 0.170492 0.1647 0.113753
threshold=154.50000000000003 27.350000000000005 100.50000000000001 28.500000000000004 17.500000000000004 79.000000000000014 76.500000000000014 77.000000000000014 25.500000000000004 71.000000000000014 36.500000000000007 166.50000000000003 32.500000000000007 64.500000000000014 2.5000000000000004 185.00000000000003 4.5000000000000009 26.500000000000004 24.250000000000004
decision_type=2 2 2 2 2 2 2 2 2 2 2 2 2 2 2 2 2 2 2
left_child=1 13 8 6 7 10 -4 -5 17 -10 -6 -2 -8 14 -1 -13 18 -3 -15
right_child=11 2 3 4 5 -7 12 -9 9 -11 -12 15 -14 16 -16 -17 -18 -19 -20
leaf_value=-0.072834547105964584 0.033527867606586562 -0.062106928496620278 -0.0071031612491665721 0.0073230036540007084 0.015903404623159575 0.077577429705321665 -0.067438695999926496 -0.035607958600412964 -0.018746851159983164 -0.054870367553284873 -0.021690615716753729 0.072067158376898824 -0.031086213032527905 -0.062128910821253158 -0.028559092715635233 0.051908140738485098 -0.078911615539416835 -0.075385967325891159 -0.073134599255618632
leaf_count=30 28 22 31 29 21 21 23 24 20 30 21 25 20 20 24 20 26 21 24
internal_value=0 -0.678342 -0.437972 -0.155097 0.148292 0.476621 -0.645936 -0.240689 -1.05916 -0.808971 -0.0573391 1.03206 -1.00572 -1.27764 -1.05671 1.26159 -1.44518 -1.37407 -1.36187
internal_count=480 407 283 190 116 63 74 53 93 50 42 73 43 124 54 45 70 43 44
shrinkage=0.05


Tree=12
num_leaves=19
num_cat=0
split_feature=1 5 1 7 3 2 6 4 2 6 7 6 3 2 1 4 3 2
split_gain=38.8279 12.8431 10.9725 6.26324 3.3068 8.09645 3.27496 2.94167 2.16532 1.8926 1.62449 2.17684 1.27353 0.955456 2.04441 0.735173 0.155803 0.126274
threshold=154.50000000000003 27.350000000000005 100.50000000000001 28.500000000000004 17.500000000000004 79.000000000000014 0.51500000000000012 76.500000000000014 77.000000000000014 0.34250000000000008 25.500000000000004 0.46650000000000008 32.500000000000007 64.500000000000014 105.50000000000001 184.50000000000003 26.500000000000004 73.000000000000014
decision_type=2 2 2 2 2 2 2 2 2 2 2 2 2 2 2 2 2 2
left_child=1 13 10 7 8 6 -6 -4 -5 -2 16 -12 -9 14 -1 -11 -3 -15
right_child=9 2 3 4 5 -7 -8 12 -10 15 11 -13 -14 17 -16 -17 -18 -19
leaf_value=-0.070715391982535444 0.026364381663565379 -0.060484181911951887 -0.0067555148354110847 0.0069585290831576403 -0.02951736426002349 0.074086180205568022 0.026739590964506239 -0.064943651273639574 -0.033917599838439505 0.072278054245621032 -0.056766803843611935 -0.01280567933877089 -0.029627773087186685 -0.066001606802410656 -0.028289418227189445 0.046207839088424491 -0.07356318456533073 -0.075182407590922207
leaf_count=30 24 22 31 29 22 21 20 23 24 29 30 20 20 37 24 20 21 33
internal_value=0 -0.652281 -0.419239 -0.147835 0.141124 0.453683 -0.0544882 -0.617106 -0.228971 0.992529 -1.02312 -0.775771 -0.963824 -1.24243 -1.02467 1.23241 -1.3395 -1.4084
internal_count=480 407 283 190 116 63 42 74 53 73 93 50 43 124 54 49 43 70
shrinkage=0.05


Tree=13
num_leaves=19
num_cat=0
split_feature=1 5 1 7 2 7 5 7 6 6 6 3 1 4 5 3 6 4
split_gain=35.5236 12.145 9.53618 4.80198 4.63099 2.36633 4.80309 1.88914 1.80661 3.34881 1.78952 1.46606 0.733215 0.698565 0.443319 0.35154 0.116215 0.0145326
threshold=154.50000000000003 29.850000000000005 100.50000000000001 30.500000000000004 65.500000000000014 27.500000000000004 26.350000000000005 35.500000000000007 0.51500000000000012 0.27950000000000008 0.34250000000000008 31.500000000000004 85.500000000000014 184.50000000000003 34.350000000000001 13.500000000000002 0.31000000000000005 82.500000000000014
decision_type=2 2 2 2 2 2 2 2 2 2 2 2 2 2 2 2 2 2
left_child=1 5 11 4 -4 15 16 -8 9 -5 -2 12 -3 -12 -6 -1 -7 -17
right_child=10 2 3 8 14 6 7 -9 -10 -11 13 -13 -14 -15 -16 17 -18 -19
leaf_value=-0.056567227705383361 0.025158681418202457 -0.073340852466119058 0.010124882706100425 0.024977409828117303 -0.029954130094877896 -0.061071971708985262 0.0067548023565688594 -0.037624528140778296 0.033097435801518464 -0.028201495495546902 0.070109789386334206 -0.029304068284434989 -0.045945427415253773 0.044492010054815873 -0.049887931712943701 -0.068926176153859264 -0.072612563764256774 -0.07245223476756471
leaf_count=37 24 25 30 28 21 20 20 20 32 21 29 26 20 20 26 37 21 23
internal_value=0 -0.62787 -0.323951 -0.0553097 -0.42111 -1.0612 -0.802557 -0.314154 0.286224 0.0443257 0.955551 -0.978856 -1.21559 1.19185 -0.821249 -1.30187 -1.33927 -1.40656
internal_count=480 407 229 158 77 178 81 40 81 49 73 71 45 49 47 97 41 60
shrinkage=0.05


Tree=14
num_leaves=19
num_cat=0
split_feature=1 5 1 7 3 2 6 2 2 6 7 6 0 2 1 3 1 6
split_gain=32.5109 11.5397 9.48998 5.259 3.0413 7.32457 2.8697 2.76782 1.94059 1.69665 1.59903 2.03853 0.98119 2.19143 0.526189 0.159981 0.0151119 0.0010667
threshold=154.50000000000003 27.350000000000005 100.50000000000001 28.500000000000004 17.500000000000004 79.000000000000014 0.51500000000000012 67.000000000000014 77.000000000000014 0.34250000000000008 25.500000000000004 0.46650000000000008 2.5000000000000004 64.500000000000014 180.50000000000003 26.500000000000004 107.50000000000001 0.35000000000000003
decision_type=2 2 2 2 2 2 2 2 2 2 2 2 2 2 2 2 2 2
left_child=1 12 10 7 8 6 -6 -4 -5 -2 15 -12 16 -14 -11 -3 17 -1
right_child=9 2 3 4 5 -7 -8 -9 -10 14 11 -13 13 -15 -16 -17 -18 -19
leaf_value=-0.067022060774245093 0.024010670840730653 -0.057346390469160846 -0.0088696856376941826 0.0062324768438416361 -0.027666921601714769 0.070812253909583858 0.02506999500154837 -0.048786198113011783 -0.032526988755881163 0.067295735788995212 -0.053377938026337793 -0.010452656560789555 -0.023549618609444753 -0.066143467167660661 0.045002885356022822 -0.070944817282879921 -0.071221137398116682 -0.068171688743368056
leaf_count=21 24 22 38 29 22 21 20 36 24 28 30 20 24 36 21 21 22 21
internal_value=0 -0.6044 -0.384404 -0.133422 0.131252 0.432014 -0.0507908 -0.566836 -0.224015 0.920621 -0.958193 -0.712208 -1.18039 -0.983111 1.1539 -1.28236 -1.378 -1.35211
internal_count=480 407 283 190 116 63 42 74 53 73 93 50 124 60 49 43 64 42
shrinkage=0.05



feature importances:
Column_5=51
Column_1=48
Column_6=45
Column_7=30
Column_3=27
Column_2=26
Column_4=24
Column_0=15

pandas_categorical:null
